Language model created by QuickLM on Sat May 10 03:42:44 EDT 2025
Copyright (c) 1996-2010 Carnegie Mellon University and Alexander I. Rudnicky

The model is in standard ARPA format, designed by Doug Paul while he was at MITRE.

The code that was used to produce this language model is available in Open Source.
Please visit http://www.speech.cs.cmu.edu/tools/ for more information

The (fixed) discount mass is 0.5. The backoffs are computed using the ratio method.
This model based on a corpus of 12 sentences and 14 words

\data\
ngram 1=14
ngram 2=24
ngram 3=26

\1-grams:
-0.9294 </s> -0.3010
-0.9294 <s> -0.2467
-1.7076 CHROME -0.2467
-1.3096 CLOSE -0.2562
-2.0086 DOWN -0.2467
-1.7076 ECLIPSE -0.2467
-1.7076 EDGE -0.2467
-1.7076 MICROSOFT -0.2924
-1.7076 NETBEANS -0.2467
-1.7076 NOTEPAD -0.2467
-1.3096 OPEN -0.2562
-2.0086 RESTART -0.2467
-2.0086 SHUT -0.2968
-1.7076 SYSTEM -0.2924

\2-grams:
-0.6812 <s> CLOSE 0.0000
-0.6812 <s> OPEN 0.0000
-1.0792 <s> SYSTEM 0.0000
-0.3010 CHROME </s> -0.3010
-1.0000 CLOSE CHROME 0.0000
-1.0000 CLOSE ECLIPSE 0.0000
-1.0000 CLOSE MICROSOFT 0.0000
-1.0000 CLOSE NETBEANS 0.0000
-1.0000 CLOSE NOTEPAD 0.0000
-0.3010 DOWN </s> -0.3010
-0.3010 ECLIPSE </s> -0.3010
-0.3010 EDGE </s> -0.3010
-0.3010 MICROSOFT EDGE 0.0000
-0.3010 NETBEANS </s> -0.3010
-0.3010 NOTEPAD </s> -0.3010
-1.0000 OPEN CHROME 0.0000
-1.0000 OPEN ECLIPSE 0.0000
-1.0000 OPEN MICROSOFT 0.0000
-1.0000 OPEN NETBEANS 0.0000
-1.0000 OPEN NOTEPAD 0.0000
-0.3010 RESTART </s> -0.3010
-0.3010 SHUT DOWN 0.0000
-0.6021 SYSTEM RESTART 0.0000
-0.6021 SYSTEM SHUT 0.0000

\3-grams:
-1.0000 <s> CLOSE CHROME
-1.0000 <s> CLOSE ECLIPSE
-1.0000 <s> CLOSE MICROSOFT
-1.0000 <s> CLOSE NETBEANS
-1.0000 <s> CLOSE NOTEPAD
-1.0000 <s> OPEN CHROME
-1.0000 <s> OPEN ECLIPSE
-1.0000 <s> OPEN MICROSOFT
-1.0000 <s> OPEN NETBEANS
-1.0000 <s> OPEN NOTEPAD
-0.6021 <s> SYSTEM RESTART
-0.6021 <s> SYSTEM SHUT
-0.3010 CLOSE CHROME </s>
-0.3010 CLOSE ECLIPSE </s>
-0.3010 CLOSE MICROSOFT EDGE
-0.3010 CLOSE NETBEANS </s>
-0.3010 CLOSE NOTEPAD </s>
-0.3010 MICROSOFT EDGE </s>
-0.3010 OPEN CHROME </s>
-0.3010 OPEN ECLIPSE </s>
-0.3010 OPEN MICROSOFT EDGE
-0.3010 OPEN NETBEANS </s>
-0.3010 OPEN NOTEPAD </s>
-0.3010 SHUT DOWN </s>
-0.3010 SYSTEM RESTART </s>
-0.3010 SYSTEM SHUT DOWN

\end\